{"type":"NeuralNetwork","sizes":[44,3,1],"layers":[{"weights":[],"biases":[]},{"weights":[[1.8601301908493042,-37.06043243408203,0.6391928195953369,40.558074951171875,-0.023947296664118767,2.307837724685669,0.3688262403011322,0.017920034006237984,-2.9829373359680176,-0.07388915121555328,-0.2279147356748581,-0.18046581745147705,-0.16313013434410095,11.436528205871582,0.13083676993846893,0.18418452143669128,-0.4044344425201416,-0.29981154203414917,1.0410103797912598,0.4247302711009979,0.08790133148431778,0.924168586730957,2.1647229194641113,-10.542949676513672,-0.07471633702516556,-0.18950435519218445,-0.7834799885749817,-0.04712964594364166,8.444010734558105,3.6869053840637207,-0.22855883836746216,-0.009698991663753986,-0.06809806823730469,0.0726386159658432,-0.12022089958190918,-5.802069187164307,34.4240608215332,-3.8633835315704346,-0.027299830690026283,10.440510749816895,-0.30613481998443604,-7.170702934265137,0.19675105810165405,0.2582535743713379],[-2.4414923191070557,-16.899188995361328,-2.2067229747772217,-24.626731872558594,-0.35838615894317627,-0.41267722845077515,0.2977044880390167,-0.03833449259400368,3.283341646194458,-0.15591713786125183,0.37655147910118103,0.557765007019043,0.29526230692863464,-20.93210792541504,-0.2987549602985382,-0.033536396920681,1.706773281097412,1.7439422607421875,-0.9641672968864441,-0.68846595287323,-0.3669239580631256,-1.121452808380127,-7.707790851593018,8.31931209564209,0.2827417850494385,-0.11635741591453552,0.32363173365592957,0.15825510025024414,-27.0609188079834,3.716754913330078,0.18173976242542267,-0.09010333567857742,-0.11604981124401093,-0.14444366097450256,0.06834559887647629,-54.45236587524414,25.138782501220703,24.314119338989258,0.06136878579854965,-48.57168197631836,-0.06258728355169296,0.34253501892089844,-0.016170090064406395,0.05064694210886955],[4.230114459991455,9.902724266052246,3.8993518352508545,-191.9879150390625,0.5684379935264587,8.775079727172852,-0.27165913581848145,-0.11024028062820435,-21.387264251708984,0.10889848321676254,0.45548850297927856,0.657437801361084,0.099044568836689,-0.7749838829040527,1.8767544031143188,-1.3549373149871826,-0.2857170104980469,-0.6625005006790161,0.6886348724365234,0.3029002249240875,-0.1682005673646927,0.7207025289535522,8.949953079223633,2.9244377613067627,-1.0467334985733032,0.005009322427213192,-2.835752010345459,-0.04949069768190384,-3.3253674507141113,-2.005126714706421,-1.2151191234588623,-0.05664913356304169,-0.08035873621702194,-0.08985430002212524,0.11782333999872208,-12.360817909240723,-5.176743507385254,-61.55427932739258,-0.3531508445739746,-46.95130157470703,-0.2738979160785675,0.007957201451063156,0.2068716287612915,0.2884591221809387]],"biases":[-5.0755438804626465,26.327308654785156,0.09252584725618362]},{"weights":[[4.552596569061279,-3.4356698989868164,32.62160110473633]],"biases":[-2.761519193649292]}],"inputLookup":null,"inputLookupLength":0,"outputLookup":null,"outputLookupLength":0,"options":{"inputSize":0,"outputSize":0,"binaryThresh":0.5,"hiddenLayers":[3],"activation":"sigmoid"},"trainOpts":{"activation":"sigmoid","iterations":100,"errorThresh":0.005,"log":false,"logPeriod":10,"leakyReluAlpha":0.01,"learningRate":0.3,"momentum":0.1,"callbackPeriod":10,"timeout":"Infinity","beta1":0.9,"beta2":0.999,"epsilon":1e-8}}