{"type":"NeuralNetwork","sizes":[78,3,1],"layers":[{"weights":[],"biases":[]},{"weights":[[-1.1174612045288086,-0.8140092492103577,-0.10023169964551926,-0.159231036901474,0.1421411782503128,0.07707807421684265,-0.104703888297081,-0.027029532939195633,0.19103321433067322,0.18204930424690247,0.057467982172966,-0.16924253106117249,0.05612736567854881,0.008437642827630043,-0.40860715508461,-0.534953773021698,-0.20408962666988373,0.23605786263942719,0.15695858001708984,-0.4793475568294525,-0.8157062530517578,-0.0970398560166359,0.3879701793193817,0.24133026599884033,-0.26461049914360046,-0.5826621651649475,-0.15266454219818115,0.11959294229745865,-0.24295923113822937,-0.13950152695178986,0.05980387330055237,-0.1733260303735733,-0.034445621073246,0.03210869058966637,-0.0667346864938736,0.15908977389335632,-0.34416091442108154,-0.3010801076889038,-0.057266030460596085,-0.1377725452184677,-0.008105858229100704,-0.08517336845397949,0.6833656430244446,-0.1506226509809494,-0.022339079529047012,-0.05485280230641365,0.1944010704755783,-0.14429570734500885,0.11885708570480347,0.00381997087970376,0.05801401287317276,-0.16877633333206177,0.09811559319496155,0.11408020555973053,0.1300404816865921,0.16082227230072021,-0.005631090607494116,-0.07065024971961975,-0.18707667291164398,0.046355195343494415,-0.1068875789642334,0.15497006475925446,-0.11228307336568832,-0.16602323949337006,0.0035493781324476004,-0.0665212869644165,-0.26652035117149353,-0.060272421687841415,0.0265037901699543,0.03784353286027908,-0.07109487801790237,-0.15441977977752686,-0.1854570209980011,0.13003984093666077,0.3261217176914215,0.18411043286323547,0.19865280389785767,0.16569006443023682],[1.5727732181549072,1.2086162567138672,0.13892151415348053,-0.1632024198770523,0.10536035150289536,-0.14492926001548767,0.12450462579727173,0.1400146782398224,0.14452262222766876,-0.19169753789901733,-0.0044809384271502495,-0.1834842562675476,-0.13526707887649536,-0.12690871953964233,1.19775390625,0.5561922192573547,0.17561885714530945,-0.3250884413719177,0.06590013951063156,0.5332046151161194,0.7435893416404724,0.22226670384407043,-0.5357663631439209,-0.18074405193328857,0.3663052022457123,1.4672455787658691,0.06057613343000412,0.2697533369064331,0.5529507398605347,0.04999712482094765,-0.03959809988737106,0.07427138835191727,-0.022772831842303276,-0.017825648188591003,-0.0004421028424985707,0.07810266315937042,0.3659832775592804,0.2248697131872177,0.07085102051496506,0.11902154982089996,-0.05955803394317627,-0.14833766222000122,-1.079170823097229,0.021174347028136253,0.09620920568704605,-0.1650000363588333,0.027695728465914726,-0.00887586735188961,0.014163651503622532,-0.023284582421183586,-0.12353215366601944,0.13492810726165771,0.17358002066612244,0.042062245309352875,0.03430654853582382,-0.1577715128660202,-0.1548876315355301,0.1809777021408081,0.010743009857833385,0.05248257890343666,0.07369159907102585,-0.03679633140563965,-0.0865832269191742,0.03167625516653061,-0.09238802641630173,-0.0814686268568039,0.4692201316356659,-0.14632008969783783,-0.0031401468440890312,0.00025536087923683226,0.006450415123254061,-0.04546843096613884,-0.03951391205191612,-0.042668260633945465,-0.6789243817329407,0.17657683789730072,-0.8252699375152588,-0.7875653505325317],[-1.633495807647705,-1.2584543228149414,0.1112729087471962,-0.040118444710969925,-0.04571299999952316,-0.07580697536468506,0.1434614658355713,-0.19014300405979156,-0.1455770581960678,-0.1754298061132431,0.02883695252239704,0.010551492683589458,0.07656774669885635,-0.02211109735071659,-0.5942956209182739,-0.37662672996520996,-0.24650439620018005,0.6552315354347229,0.30854785442352295,-0.44728121161460876,-0.9141333699226379,0.011755965650081635,0.45790284872055054,0.07391120493412018,-0.18332825601100922,-1.1318373680114746,-0.1517622321844101,-0.11044634133577347,-0.2285846769809723,-0.30333688855171204,-0.0846567302942276,0.041411105543375015,-0.12098641693592072,0.12566035985946655,0.11387529969215393,0.08141274750232697,-0.3095785975456238,-0.3522421419620514,-0.07302742451429367,-0.13209271430969238,-0.03567824140191078,-0.104032963514328,0.960078775882721,0.014348670840263367,-0.17591533064842224,0.057863954454660416,0.0925641879439354,0.17818011343479156,0.02505648322403431,-0.1206090897321701,-0.13009992241859436,-0.16864199936389923,0.022178342565894127,0.07023189961910248,-0.07050414383411407,-0.002949577057734132,-0.05118143558502197,0.11121886968612671,0.07984942942857742,0.007221361622214317,0.11462601274251938,-0.020409146323800087,-0.004459545481950045,0.10661598294973373,-0.17082569003105164,0.1502116471529007,-0.2385106384754181,-0.11404070258140564,0.1017402708530426,-0.08346191793680191,-0.014278520829975605,-0.10604005306959152,-0.006639988161623478,-0.06427188217639923,0.40644219517707825,-0.03560364991426468,0.2270732969045639,0.4016738533973694]],"biases":[-0.6125050783157349,1.522134780883789,-1.016676902770996]},{"weights":[[1.6536575555801392,-5.022026538848877,2.8263232707977295]],"biases":[-1.2284414768218994]}],"inputLookup":null,"inputLookupLength":0,"outputLookup":null,"outputLookupLength":0,"options":{"inputSize":0,"outputSize":0,"binaryThresh":0.5,"hiddenLayers":[3],"activation":"sigmoid"},"trainOpts":{"activation":"sigmoid","iterations":100,"errorThresh":0.005,"log":true,"logPeriod":10,"leakyReluAlpha":0.01,"learningRate":0.3,"momentum":0.1,"callbackPeriod":10,"timeout":"Infinity","beta1":0.9,"beta2":0.999,"epsilon":1e-8}}