{"type":"NeuralNetwork","sizes":[43,3,1],"layers":[{"weights":[],"biases":[]},{"weights":[[-0.5547325611114502,-40.44053268432617,-0.44277212023735046,29.611106872558594,-0.16791275143623352,-0.14528888463974,0.07502253353595734,-0.08071637153625488,0.6897627711296082,-0.16976165771484375,0.1159786507487297,-0.12314601242542267,0.009500917047262192,4.110598564147949,-0.31158095598220825,-0.09884974360466003,0.36869698762893677,0.2776779234409332,-0.10882134735584259,-0.3498322367668152,-0.1611572951078415,0.03203384205698967,-9.924938201904297,-3.472256898880005,0.03915414586663246,0.11989345401525497,0.057382579892873764,0.13452215492725372,-28.95853042602539,34.39724349975586,0.19285286962985992,0.1622135192155838,0.18531402945518494,-0.17507389187812805,-0.03877394273877144,20.049741744995117,11.828348159790039,6.091654300689697,0.14220647513866425,-23.579519271850586,-0.11213946342468262,-2.1395411491394043,0.06609418988227844],[1.157724142074585,-20.82221794128418,0.9146143794059753,12.249166488647461,0.01631268300116062,0.9676908254623413,0.48265311121940613,0.060516588389873505,-2.900912284851074,-0.015411497093737125,-0.18088679015636444,-0.06660744547843933,0.10162822902202606,-5.599008083343506,0.08663620799779892,0.051874786615371704,0.05095026642084122,-0.000017230386220035143,0.4052239656448364,0.07066241651773453,-0.060760218650102615,0.5959463119506836,7.490768909454346,3.8576812744140625,-0.5177299380302429,0.08317051082849503,-0.19824881851673126,0.00258440850302577,-6.765222549438477,-3.651801586151123,-0.3247963488101959,-0.16452325880527496,-0.16611634194850922,-0.0646330863237381,0.11606869846582413,-3.2382476329803467,15.965006828308105,-15.115255355834961,0.09281119704246521,-42.315059661865234,-0.02363097295165062,-4.56024694442749,-0.09402595460414886],[1.0233333110809326,-11.758301734924316,0.9131565093994141,47.98203659057617,-0.08932025730609894,-0.17797896265983582,1.1950254440307617,-0.04172337055206299,-2.3253347873687744,0.0245924424380064,-0.18090468645095825,-0.169250026345253,-0.2611382007598877,23.539186477661133,-0.09156322479248047,-0.14818336069583893,-0.6308959126472473,-0.6766576766967773,0.3600658178329468,0.21990811824798584,0.13241100311279297,0.26662975549697876,0.584296703338623,5.48497200012207,-0.15905970335006714,-0.1972600668668747,-0.3382202982902527,0.08057709038257599,4.612467288970947,14.814352989196777,-0.33350786566734314,0.12376619875431061,-0.11808620393276215,-0.17685313522815704,-0.10160280764102936,15.93298625946045,-0.9812644720077515,-6.578567028045654,0.09039870649576187,28.98794937133789,0.08112762868404388,-0.3580645024776459,0.13722002506256104]],"biases":[-2.88191294670105,7.511362075805664,-18.955078125]},{"weights":[[-3.2616095542907715,3.345438003540039,3.9250612258911133]],"biases":[-0.9313847422599792]}],"inputLookup":null,"inputLookupLength":0,"outputLookup":null,"outputLookupLength":0,"options":{"inputSize":0,"outputSize":0,"binaryThresh":0.5,"hiddenLayers":[3],"activation":"sigmoid"},"trainOpts":{"activation":"sigmoid","iterations":100,"errorThresh":0.005,"log":true,"logPeriod":10,"leakyReluAlpha":0.01,"learningRate":0.3,"momentum":0.1,"callbackPeriod":10,"timeout":"Infinity","beta1":0.9,"beta2":0.999,"epsilon":1e-8}}