{"type":"NeuralNetwork","sizes":[78,3,1],"layers":[{"weights":[],"biases":[]},{"weights":[[1.6749980449676514,1.2932285070419312,-0.11231483519077301,-0.1645650863647461,0.07480736821889877,-0.06592092663049698,0.06754787266254425,0.17479051649570465,-0.18286198377609253,-0.15222623944282532,0.12142199277877808,0.16773580014705658,0.176414355635643,-0.14945530891418457,1.1934007406234741,0.6731610894203186,0.18989913165569305,-0.4247812330722809,0.2132321149110794,0.36600461602211,0.8330508470535278,0.0702805295586586,-0.7886247038841248,-0.2514430284500122,0.5181819796562195,1.5036906003952026,0.05475267022848129,0.19710102677345276,0.6429576277732849,0.05952912196516991,-0.1447199136018753,0.08234298974275589,-0.1594051569700241,-0.1974535584449768,0.1435774713754654,0.058446258306503296,0.5484129190444946,0.12639017403125763,0.06070631742477417,-0.17672224342823029,-0.0031505213119089603,0.026617806404829025,-1.2055482864379883,-0.07352329790592194,-0.13338273763656616,0.05142388492822647,0.09369799494743347,-0.15508028864860535,-0.10827507823705673,0.09915953874588013,0.18084122240543365,-0.01922694779932499,-0.10733212530612946,0.009413179941475391,0.19571030139923096,-0.033029794692993164,0.05487320199608803,-0.059226617217063904,0.13857869803905487,-0.022767864167690277,-0.16009771823883057,-0.10539708286523819,0.16087636351585388,-0.11410065740346909,-0.18833014369010925,-0.07114493101835251,0.4845791757106781,-0.13853907585144043,-0.08934336155653,-0.13296373188495636,0.023551730439066887,-0.07834440469741821,-0.11282554268836975,0.08211532980203629,-0.617786169052124,0.2060718834400177,-0.815496027469635,-0.8270672559738159],[-2.026014566421509,-1.2380043268203735,-0.050704944878816605,0.0670183002948761,-0.07314252108335495,-0.18626470863819122,-0.12081332504749298,-0.1811935156583786,-0.11839333176612854,-0.00649003591388464,-0.03798828646540642,0.16272465884685516,0.08480091392993927,-0.01616385206580162,-0.5721293091773987,-0.4554052948951721,-0.09510592371225357,0.5184130668640137,0.15601769089698792,-0.4065707325935364,-1.0926493406295776,-0.18855157494544983,0.5791085362434387,0.24881131947040558,-0.29653623700141907,-1.0174661874771118,-0.2597161829471588,0.10419080406427383,-0.2891148030757904,-0.29421353340148926,0.131514310836792,-0.19912807643413544,0.10543117672204971,0.16162748634815216,0.159288227558136,-0.1626071184873581,-0.531380295753479,-0.267195463180542,-0.09709576517343521,0.18661382794380188,-0.1378513127565384,-0.05959039926528931,1.079192876815796,0.1270783245563507,-0.04669470712542534,0.05137913301587105,0.015755701810121536,-0.10696931928396225,0.17341670393943787,-0.09893839061260223,-0.18750326335430145,0.15264055132865906,-0.14027808606624603,0.1230240985751152,-0.07606199383735657,-0.032417647540569305,0.13835033774375916,0.11934258788824081,-0.16890525817871094,-0.03262423723936081,0.039828743785619736,0.19116678833961487,-0.09566470235586166,0.11748601496219635,-0.09192705154418945,-0.06555938720703125,-0.45308831334114075,-0.2070319950580597,-0.13425526022911072,0.01838369108736515,-0.14786909520626068,0.18734286725521088,-0.18503166735172272,-0.1803159862756729,0.4778999090194702,0.1386566460132599,0.2684350609779358,0.4113980829715729],[-0.24373981356620789,-0.08801278471946716,-0.05168503150343895,-0.11563427746295929,0.13709568977355957,-0.08259742707014084,0.06331582367420197,0.18993507325649261,0.11594806611537933,-0.17302560806274414,-0.1221671774983406,0.09454048424959183,0.09490956366062164,-0.005631941836327314,0.18962636590003967,-0.01942257769405842,0.11868815869092941,0.19277094304561615,0.018132008612155914,0.11167378723621368,-0.38684043288230896,-0.035268157720565796,-0.0703100860118866,-0.21789316833019257,-0.04607574641704559,0.23669302463531494,-0.006161485332995653,0.24074412882328033,0.1477804034948349,-0.19374170899391174,0.12506358325481415,-0.033741340041160583,-0.15807217359542847,0.10380788892507553,-0.054107941687107086,-0.09909611195325851,0.13793671131134033,-0.04093661904335022,0.16711869835853577,0.05914750695228577,0.1370270699262619,0.17246109247207642,-0.04443218186497688,0.12646162509918213,0.07299142330884933,-0.09105158597230911,0.0845549926161766,-0.15054364502429962,0.08459392935037613,0.06488168984651566,0.08563452959060669,-0.18817511200904846,-0.13170745968818665,-0.09620828181505203,-0.15782982110977173,0.15838302671909332,-0.11915438622236252,-0.052426401525735855,-0.011819110251963139,0.10012300312519073,0.08507879823446274,0.14310209453105927,-0.18854743242263794,0.10669377446174622,-0.1448449194431305,0.06548373401165009,0.13197138905525208,0.03529097139835358,-0.047463372349739075,0.012449205853044987,-0.02332564815878868,0.17400744557380676,0.019428914412856102,-0.07990355789661407,-0.1499834805727005,0.16329099237918854,-0.28244221210479736,-0.14974848926067352]],"biases":[1.5911496877670288,-1.2415357828140259,0.037490114569664]},{"weights":[[-5.2708330154418945,3.4885895252227783,-0.6058876514434814]],"biases":[-0.26249855756759644]}],"inputLookup":null,"inputLookupLength":0,"outputLookup":null,"outputLookupLength":0,"options":{"inputSize":0,"outputSize":0,"binaryThresh":0.5,"hiddenLayers":[3],"activation":"sigmoid"},"trainOpts":{"activation":"sigmoid","iterations":100,"errorThresh":0.005,"log":true,"logPeriod":10,"leakyReluAlpha":0.01,"learningRate":0.3,"momentum":0.1,"callbackPeriod":10,"timeout":"Infinity","beta1":0.9,"beta2":0.999,"epsilon":1e-8}}