{"type":"NeuralNetwork","sizes":[43,3,1],"layers":[{"weights":[],"biases":[]},{"weights":[[-0.5804119110107422,-43.23916244506836,-0.31827035546302795,30.43164825439453,-0.15192267298698425,-0.06748342514038086,-0.13898947834968567,0.08088202774524689,0.8028794527053833,-0.15742558240890503,0.14561371505260468,-0.0736498013138771,0.10048984736204147,4.597566604614258,-0.22068504989147186,0.060942795127630234,0.43736186623573303,0.3905205726623535,0.0011997573310509324,-0.27285677194595337,-0.22895266115665436,-0.17460305988788605,-10.15066146850586,-3.363652467727661,-0.014464963227510452,-0.0933632031083107,0.2994726598262787,-0.17124444246292114,-29.315330505371094,35.387142181396484,-0.027819421142339706,0.09759879112243652,-0.16742557287216187,0.1006677895784378,0.1485404670238495,20.308242797851562,12.135215759277344,5.571570873260498,0.20643135905265808,-22.079421997070312,-0.2771371603012085,-2.0802340507507324,0.18809598684310913],[1.0027226209640503,-20.633426666259766,0.8424412608146667,12.179570198059082,-0.1163405328989029,0.9269586801528931,0.5710304975509644,-0.1307276487350464,-3.2238190174102783,0.11785414814949036,-0.17799393832683563,0.14934967458248138,0.19726113975048065,-5.495309829711914,0.08599881827831268,0.022274086251854897,-0.15503312647342682,-0.09190963953733444,0.6379196047782898,0.0762307271361351,-0.027468794956803322,0.6787060499191284,6.544279098510742,3.6179449558258057,-0.2162761092185974,-0.1748487502336502,-0.39588040113449097,-0.11754200607538223,-6.686338424682617,-3.613191604614258,-0.37773892283439636,-0.1150335744023323,-0.11203671246767044,0.07205693423748016,-0.042082615196704865,-3.100414752960205,16.152936935424805,-15.763235092163086,-0.003804867621511221,-42.24346923828125,0.04337973892688751,-4.551097869873047,-0.16708968579769135],[1.1264762878417969,-11.90247917175293,0.7678599953651428,47.935848236083984,0.20316766202449799,-0.14133891463279724,0.9297813773155212,0.19310349225997925,-2.0735459327697754,0.03269067779183388,-0.035295091569423676,0.06661410629749298,-0.2806593179702759,23.417085647583008,0.16851747035980225,0.1016242653131485,-0.774005651473999,-0.5640942454338074,0.45196908712387085,0.31064924597740173,0.4646339416503906,0.5025915503501892,1.7532509565353394,5.608706474304199,-0.16617099940776825,-0.11480875313282013,-0.28556472063064575,-0.12622272968292236,4.592447757720947,14.745166778564453,-0.34612351655960083,-0.08309526741504669,-0.058814965188503265,0.09833100438117981,0.11595024168491364,16.299406051635742,0.014931404031813145,-6.550260543823242,-0.001997798215597868,29.664995193481445,0.010710951872169971,-0.43031081557273865,-0.13870681822299957]],"biases":[-3.37229061126709,7.415721416473389,-18.866424560546875]},{"weights":[[-3.2619357109069824,3.3522896766662598,3.912684679031372]],"biases":[-0.9351537823677063]}],"inputLookup":null,"inputLookupLength":0,"outputLookup":null,"outputLookupLength":0,"options":{"inputSize":0,"outputSize":0,"binaryThresh":0.5,"hiddenLayers":[3],"activation":"sigmoid"},"trainOpts":{"activation":"sigmoid","iterations":100,"errorThresh":0.005,"log":true,"logPeriod":10,"leakyReluAlpha":0.01,"learningRate":0.3,"momentum":0.1,"callbackPeriod":10,"timeout":"Infinity","beta1":0.9,"beta2":0.999,"epsilon":1e-8}}