{"type":"NeuralNetwork","sizes":[78,3,1],"layers":[{"weights":[],"biases":[]},{"weights":[[-1.588025689125061,-0.8603335022926331,-0.06243021413683891,-0.03488299623131752,-0.17488110065460205,-0.058642033487558365,0.15388967096805573,-0.03846990689635277,0.058722153306007385,0.026623424142599106,-0.19735996425151825,-0.07997053116559982,0.1702744960784912,0.16001828014850616,-1.9783109426498413,-0.5504564642906189,0.22986634075641632,1.0480670928955078,0.9554373025894165,-0.35549187660217285,-0.2655796706676483,0.13501977920532227,1.0843207836151123,0.7296838164329529,-0.5417944192886353,-1.3468379974365234,-0.18045100569725037,-0.11623404175043106,-0.16215166449546814,0.12861843407154083,0.1017390638589859,0.07457608729600906,-0.014286809600889683,-0.1286470741033554,-0.13475224375724792,-0.04404909163713455,-0.4526408016681671,-0.40599653124809265,-0.1377539336681366,-0.0484774075448513,0.18156832456588745,-0.16790419816970825,2.205991506576538,-0.03816315159201622,0.033775292336940765,-0.024974385276436806,-0.18852052092552185,0.03808670863509178,-0.1875397115945816,0.16415423154830933,-0.1511891782283783,0.09721548110246658,-0.0001271004875889048,-0.14693424105644226,0.06906426697969437,-0.08874908089637756,-0.1459364891052246,-0.09669478237628937,0.1801682859659195,-0.10686102509498596,0.13294464349746704,-0.026995936408638954,0.14122065901756287,0.07028675824403763,-0.13078059256076813,0.07247529178857803,-0.26481255888938904,-0.038829218596220016,-0.1380142867565155,-0.1472555249929428,-0.29904794692993164,0.14529791474342346,-0.12740176916122437,-0.20956414937973022,0.5363470315933228,-0.10541960597038269,0.47255897521972656,0.5467390418052673],[0.5175923705101013,0.03526640683412552,0.13153937458992004,0.06541876494884491,-0.12102216482162476,-0.08543728291988373,-0.03438763692975044,0.049593064934015274,0.1328912377357483,0.1881161779165268,0.010281670838594437,0.07489897310733795,0.0743926540017128,0.08843666315078735,0.7389811277389526,0.2956039607524872,-0.2177726775407791,-0.5101462006568909,-0.34869107604026794,0.2950232923030853,0.05041980743408203,-0.21616990864276886,-0.4113899767398834,-0.41334208846092224,0.3196074962615967,0.5436190962791443,0.04499544948339462,0.22107921540737152,0.19905094802379608,-0.05427302047610283,0.12016720324754715,0.1710081547498703,-0.008990236558020115,-0.14014823734760284,-0.00320324650965631,0.11916796863079071,0.06775230914354324,0.1889132261276245,-0.141159787774086,-0.15266281366348267,-0.1521276831626892,0.05081113800406456,-1.170348882675171,-0.0013794319238513708,0.15833252668380737,0.10311435163021088,0.18817363679409027,0.0770050585269928,0.1746385097503662,0.13078968226909637,-0.07571927458047867,0.11460773646831512,0.035484131425619125,-0.10331810265779495,-0.0024934259708970785,-0.08431555330753326,-0.18727736175060272,-0.19071345031261444,0.04272233694791794,0.0021719513460993767,-0.060063887387514114,0.13095851242542267,0.06939103454351425,0.021746477112174034,0.1609760820865631,0.01920008845627308,0.2667902112007141,0.20616669952869415,0.1425938904285431,-0.09370143711566925,-0.010805430822074413,-0.15095457434654236,-0.09251765161752701,-0.12055695801973343,-0.4140781760215759,-0.01054343767464161,-0.5693088173866272,-0.4697358310222626],[1.4161456823349,0.7581909894943237,0.19710147380828857,0.19811978936195374,-0.0865054503083229,-0.09992530941963196,-0.12113119661808014,-0.1506245732307434,0.14658468961715698,-0.1343589723110199,0.14162130653858185,-0.07662741839885712,-0.1733989268541336,-0.0665019154548645,2.1914467811584473,0.8005164861679077,-0.4233536422252655,-1.4224700927734375,-0.829765260219574,0.3976108133792877,0.191458061337471,-0.2061532735824585,-1.0107897520065308,-0.9589290618896484,0.7158377170562744,1.4787932634353638,0.18248799443244934,-0.12778551876544952,0.3000747263431549,0.18172354996204376,0.16536802053451538,0.09973423928022385,-0.15832273662090302,0.18583953380584717,-0.041884515434503555,-0.049336135387420654,0.30294767022132874,0.2513969838619232,0.13373678922653198,0.070720374584198,-0.09651508927345276,0.09590669721364975,-2.303218364715576,0.06797648966312408,0.11739812791347504,-0.029876306653022766,0.13524621725082397,-0.056165747344493866,0.11992695182561874,-0.05175025761127472,-0.1895693838596344,-0.1956397294998169,-0.034264057874679565,-0.08529624342918396,-0.19301630556583405,0.0740894004702568,-0.1848137378692627,-0.041111402213573456,-0.1531982570886612,-0.10438662022352219,0.11804010719060898,0.08440603315830231,-0.05390788987278938,0.17764711380004883,-0.13942573964595795,0.22411960363388062,0.4865877330303192,0.02358970418572426,0.19922880828380585,-0.17535194754600525,0.17464500665664673,0.1819702684879303,0.13410428166389465,0.06239727512001991,-1.0920257568359375,-0.11277030408382416,-0.9743990898132324,-0.8308163285255432]],"biases":[-0.39646434783935547,0.10354446619749069,0.5175049304962158]},{"weights":[[5.181528091430664,-1.6997601985931396,-4.983599662780762]],"biases":[1.5836738348007202]}],"inputLookup":null,"inputLookupLength":0,"outputLookup":null,"outputLookupLength":0,"options":{"inputSize":0,"outputSize":0,"binaryThresh":0.5,"hiddenLayers":[3],"activation":"sigmoid"},"trainOpts":{"activation":"sigmoid","iterations":100,"errorThresh":0.005,"log":false,"logPeriod":10,"leakyReluAlpha":0.01,"learningRate":0.3,"momentum":0.1,"callbackPeriod":10,"timeout":"Infinity","beta1":0.9,"beta2":0.999,"epsilon":1e-8}}