{"type":"NeuralNetwork","sizes":[78,3,1],"layers":[{"weights":[],"biases":[]},{"weights":[[1.464799404144287,0.6107329726219177,-0.05387727916240692,0.019827449694275856,-0.08097966760396957,0.0652550756931305,0.08145837485790253,0.16894493997097015,-0.06311868131160736,0.006095557007938623,0.1892513781785965,-0.08736700564622879,-0.09712498635053635,0.12828347086906433,2.1189658641815186,0.8506993055343628,-0.13661839067935944,-1.2289609909057617,-0.946795642375946,0.3064931035041809,0.2964136302471161,0.10683933645486832,-1.337114930152893,-0.947979211807251,0.5308866500854492,1.3882662057876587,0.288514643907547,0.06689893454313278,0.6438132524490356,-0.09890811145305634,0.0990787222981453,-0.07160410284996033,0.062365178018808365,-0.0654701367020607,-0.16278928518295288,0.06098217889666557,0.3858053982257843,0.18115706741809845,0.07865212112665176,-0.1660318225622177,-0.09150205552577972,0.027919327840209007,-2.3977811336517334,0.014234391041100025,-0.045436959713697433,-0.07824765145778656,0.023507850244641304,-0.14219561219215393,0.048513028770685196,0.0963602140545845,0.0005837819771841168,-0.19766171276569366,0.05379733443260193,-0.0548650398850441,0.20097434520721436,0.14958666265010834,-0.12694543600082397,-0.16546830534934998,0.036852117627859116,0.11764547228813171,-0.05641097575426102,-0.1349184662103653,0.053876522928476334,0.030127231031656265,-0.03181163966655731,0.159358412027359,0.45546039938926697,-0.04908379912376404,0.14172549545764923,0.0355491004884243,0.2669724225997925,-0.16201235353946686,0.2809443771839142,0.26230183243751526,-1.1152080297470093,0.09988944232463837,-1.1393417119979858,-0.7971261143684387],[0.13732030987739563,0.22429850697517395,-0.10270725935697556,0.03653239458799362,-0.12432935833930969,-0.1305396556854248,0.07754354923963547,-0.04065420478582382,0.11146366596221924,0.04040852561593056,-0.14798974990844727,0.04425141215324402,-0.16649189591407776,-0.148127481341362,0.4502289891242981,0.2600003778934479,-0.0012767785228788853,-0.39207473397254944,-0.22652457654476166,0.002243728144094348,-0.3499327301979065,0.06731325387954712,-0.0978163480758667,-0.18257668614387512,0.14259780943393707,0.1795661896467209,0.025103801861405373,0.0026554279029369354,0.16748398542404175,0.035941753536462784,-0.15588843822479248,0.15362222492694855,-0.00030031241476535797,-0.007258872967213392,0.08502164483070374,0.06989751756191254,-0.1285235434770584,0.1798374354839325,-0.06896551698446274,-0.08462345600128174,-0.05594008415937424,-0.1944347321987152,-0.423453688621521,0.034604284912347794,-0.15369798243045807,0.18038609623908997,0.19242769479751587,0.01104671973735094,0.16692958772182465,-0.07662413269281387,-0.11419325321912766,-0.1490229219198227,0.11716604977846146,-0.10713561624288559,0.09514027833938599,0.09151796251535416,0.05944053456187248,-0.15467967092990875,0.15644824504852295,0.19828110933303833,0.17868323624134064,0.16389432549476624,-0.10928916931152344,-0.14753131568431854,0.0564306266605854,0.14429700374603271,0.04719024896621704,0.2153715342283249,0.07639951258897781,-0.1011204943060875,-0.02853105403482914,0.05825227499008179,-0.013772421516478062,-0.10730299353599548,-0.5027981996536255,0.12906506657600403,-0.5323989987373352,-0.4018520712852478],[-1.5912612676620483,-0.5906772613525391,-0.04901769384741783,0.012397621758282185,-0.12931764125823975,-0.004505468066781759,0.13736052811145782,-0.03880919888615608,-0.16712507605552673,0.17525459825992584,0.016632510349154472,0.1854432374238968,0.0573015995323658,-0.11585977673530579,-2.003048896789551,-0.5810749530792236,0.16783049702644348,1.278246521949768,0.7690598368644714,-0.4782017767429352,-0.5145949125289917,0.1921531707048416,1.060652256011963,0.9347121119499207,-0.6104250550270081,-1.3389520645141602,-0.21957829594612122,0.12394856661558151,-0.2604992687702179,-0.004258163273334503,-0.09924037754535675,0.13351404666900635,-0.01926363818347454,-0.008944772183895111,-0.10585281997919083,0.12868241965770721,-0.5614558458328247,-0.08814314752817154,-0.04793247580528259,-0.09062272310256958,-0.11713805794715881,0.02999742329120636,2.3284919261932373,-0.022026071324944496,-0.05190731957554817,-0.07495492696762085,-0.06813885271549225,-0.015027671121060848,0.11690650880336761,0.11128207296133041,0.033039581030607224,-0.005036499816924334,-0.11984745413064957,-0.12174338102340698,0.1711825728416443,0.01721816323697567,0.0915798470377922,0.004732588306069374,-0.060811564326286316,-0.0038820947520434856,-0.14895756542682648,0.13347429037094116,0.18631060421466827,0.11440341919660568,0.14471906423568726,-0.15432074666023254,-0.22458863258361816,0.02821340039372444,-0.05585814639925957,0.030500272288918495,-0.11098848283290863,-0.18627703189849854,-0.08618229627609253,-0.054975565522909164,0.44813334941864014,-0.17582225799560547,0.4646093547344208,0.5908166766166687]],"biases":[0.522483766078949,-0.06466400623321533,-0.5215945839881897]},{"weights":[[-5.195343017578125,-0.6782729029655457,5.288942337036133]],"biases":[1.2719457149505615]}],"inputLookup":null,"inputLookupLength":0,"outputLookup":null,"outputLookupLength":0,"options":{"inputSize":0,"outputSize":0,"binaryThresh":0.5,"hiddenLayers":[3],"activation":"sigmoid"},"trainOpts":{"activation":"sigmoid","iterations":100,"errorThresh":0.005,"log":true,"logPeriod":10,"leakyReluAlpha":0.01,"learningRate":0.3,"momentum":0.1,"callbackPeriod":10,"timeout":"Infinity","beta1":0.9,"beta2":0.999,"epsilon":1e-8}}