{"type":"NeuralNetwork","sizes":[43,3,1],"layers":[{"weights":[],"biases":[]},{"weights":[[0.9823179841041565,-11.836105346679688,0.9788513779640198,47.819217681884766,0.1930893361568451,-0.03778795152902603,0.9011276364326477,0.055184509605169296,-2.025175094604492,0.1912538707256317,0.023903587833046913,-0.026200616732239723,-0.18913806974887848,23.430435180664062,0.1541750729084015,-0.20207011699676514,-0.7064924240112305,-0.7957248687744141,0.4815444350242615,0.4270162880420685,0.09774914383888245,0.6171301007270813,1.6246154308319092,5.5762505531311035,-0.18341146409511566,0.012135257944464684,-0.39755022525787354,-0.020535562187433243,4.5925798416137695,14.752313613891602,-0.20226021111011505,0.13815729320049286,0.1779048591852188,-0.11162525415420532,0.18459978699684143,16.667417526245117,-0.4684688448905945,-6.557900905609131,0.013293282128870487,29.25232696533203,-0.10046889632940292,-0.39625635743141174,0.19963423907756805],[-0.6815597414970398,-41.381439208984375,-0.5042775273323059,29.759410858154297,-0.2289906144142151,0.06991913169622421,-0.04830087348818779,-0.1268872767686844,0.9547644257545471,-0.15880979597568512,-0.00004149199230596423,0.24281281232833862,0.03818277642130852,4.1823859214782715,-0.08276428282260895,0.10028602182865143,0.23006106913089752,0.3560514748096466,-0.04315059259533882,-0.18509763479232788,-0.22992107272148132,-0.16622737050056458,-10.215411186218262,-3.4479379653930664,0.17408744990825653,0.06563758105039597,0.19402389228343964,0.03890581801533699,-29.13094711303711,34.688934326171875,-0.0066757164895534515,0.19324317574501038,0.09540342539548874,-0.030892670154571533,-0.14529532194137573,20.304584503173828,11.940552711486816,6.058658599853516,0.16357220709323883,-23.21734046936035,0.10970986634492874,-2.0814478397369385,-0.0049478826113045216],[1.2963529825210571,-20.733163833618164,0.9325485825538635,12.219155311584473,0.16777203977108002,0.9167010188102722,0.6709612011909485,0.05123661831021309,-2.9229555130004883,0.04453948140144348,0.07644569873809814,0.12545152008533478,-0.1300320029258728,-5.532909393310547,0.29653826355934143,-0.033306051045656204,-0.10140645503997803,-0.15866374969482422,0.38007792830467224,0.20772863924503326,0.09437399357557297,0.28809675574302673,6.666469573974609,3.737788677215576,-0.5168749094009399,0.10725665837526321,-0.21761976182460785,0.0887848436832428,-6.72767972946167,-3.635390281677246,-0.26042667031288147,-0.07898832112550735,-0.021776942536234856,0.055213313549757004,0.10911168158054352,-3.178473472595215,15.98001766204834,-15.38452434539795,-0.10097376257181168,-42.261146545410156,-0.19353970885276794,-4.509984016418457,-0.17240524291992188]],"biases":[-18.8673038482666,-2.9511773586273193,7.465976238250732]},{"weights":[[3.9147181510925293,-3.2638421058654785,3.350365400314331]],"biases":[-0.9337576031684875]}],"inputLookup":null,"inputLookupLength":0,"outputLookup":null,"outputLookupLength":0,"options":{"inputSize":0,"outputSize":0,"binaryThresh":0.5,"hiddenLayers":[3],"activation":"sigmoid"},"trainOpts":{"activation":"sigmoid","iterations":100,"errorThresh":0.005,"log":true,"logPeriod":10,"leakyReluAlpha":0.01,"learningRate":0.3,"momentum":0.1,"callbackPeriod":10,"timeout":"Infinity","beta1":0.9,"beta2":0.999,"epsilon":1e-8}}