{"type":"NeuralNetwork","sizes":[43,3,1],"layers":[{"weights":[],"biases":[]},{"weights":[[0.11800588667392731,-11.320697784423828,-0.06912100315093994,6.2068400382995605,-0.06836787611246109,0.240676611661911,-0.10434843599796295,0.07411413639783859,-0.20289123058319092,0.18452240526676178,-0.032570164650678635,0.08042187988758087,-0.08147228509187698,-1.367837905883789,-0.15162281692028046,-0.19384615123271942,0.16458991169929504,-0.033566586673259735,0.021904170513153076,-0.15365983545780182,-0.16803224384784698,0.1488957554101944,3.806891441345215,3.5865628719329834,-0.16893522441387177,0.052726007997989655,-0.18880446255207062,-0.15075023472309113,-3.2781307697296143,-3.393099784851074,-0.1413668841123581,-0.18865546584129333,-0.13592202961444855,0.18384253978729248,0.15304452180862427,-3.6830382347106934,-0.1188720315694809,-1.1912671327590942,0.0737486258149147,-2.6665358543395996,-0.0801730751991272,-0.41885074973106384,-0.0936083272099495],[-0.012659025378525257,5.067425727844238,0.06520236283540726,-13.479369163513184,0.1679178923368454,-0.1807318478822708,-0.05940666422247887,-0.18907663226127625,0.17829836905002594,-0.19626407325267792,-0.1690591424703598,0.09290830045938492,0.17141227424144745,-6.431972026824951,0.1056327298283577,-0.01849006488919258,-0.12531089782714844,0.011875544674694538,-0.05248309671878815,0.046773381531238556,-0.005022608209401369,-0.23492483794689178,-2.649118661880493,-0.2919207215309143,0.12426610291004181,0.14638885855674744,0.1504736989736557,0.13853877782821655,-0.9188112616539001,-4.566710948944092,-0.183044895529747,0.15100789070129395,0.18255744874477386,0.0034997286275029182,0.013254436664283276,-0.7197341918945312,-2.751401662826538,0.7051377892494202,-0.1771637350320816,-8.613075256347656,-0.1513821929693222,1.060742974281311,0.12630297243595123],[-0.03299836814403534,9.367330551147461,-0.054026082158088684,8.826127052307129,-0.08455318212509155,0.08337157964706421,0.1640712469816208,-0.0673595517873764,-0.2635190486907959,-0.03519254922866821,0.11242136359214783,-0.08734360337257385,0.02080865204334259,3.8568849563598633,0.008075425401329994,0.062099672853946686,0.14125318825244904,0.09245216846466064,-0.08850181102752686,0.06072221323847771,0.21677185595035553,0.0667777955532074,2.1010963916778564,1.0308210849761963,-0.17678453028202057,-0.053961724042892456,-0.03749435395002365,-0.09007203578948975,11.84636116027832,-6.169522762298584,-0.0856693834066391,0.1833668202161789,-0.16138416528701782,-0.12811195850372314,-0.1417149007320404,1.1710357666015625,0.5664013624191284,-0.6735357642173767,-0.1860368251800537,14.937142372131348,-0.15796513855457306,-0.09627509862184525,0.16213549673557281]],"biases":[1.9137654304504395,4.312000274658203,-6.595532417297363]},{"weights":[[8.174565315246582,-4.415827751159668,4.022006511688232]],"biases":[-0.7360786199569702]}],"inputLookup":null,"inputLookupLength":0,"outputLookup":null,"outputLookupLength":0,"options":{"inputSize":0,"outputSize":0,"binaryThresh":0.5,"hiddenLayers":[3],"activation":"sigmoid"},"trainOpts":{"activation":"sigmoid","iterations":100,"errorThresh":0.005,"log":true,"logPeriod":10,"leakyReluAlpha":0.01,"learningRate":0.3,"momentum":0.1,"callbackPeriod":10,"timeout":"Infinity","beta1":0.9,"beta2":0.999,"epsilon":1e-8}}