{"type":"NeuralNetwork","sizes":[43,3,1],"layers":[{"weights":[],"biases":[]},{"weights":[[-1.1846797466278076,-16.446853637695312,-0.8428419828414917,-22.299692153930664,0.022235551849007607,-0.1555926352739334,0.2819533944129944,-0.17366895079612732,1.8061946630477905,-0.07184448093175888,0.08277871459722519,0.2974333167076111,0.2622045874595642,-21.187620162963867,-0.2508840262889862,0.05871490389108658,0.5747631192207336,0.7210848927497864,-0.4331405758857727,-0.3772507607936859,-0.11084341257810593,-0.3275673985481262,-6.145162105560303,6.324184894561768,0.10504020005464554,-0.03181269019842148,0.338243693113327,0.1394825130701065,-27.889245986938477,3.5215156078338623,0.3188077211380005,-0.09480367600917816,-0.04575161263346672,-0.02082378789782524,0.10779119282960892,-31.044363021850586,9.713990211486816,11.774508476257324,0.11685865372419357,-41.595706939697266,-0.0975470244884491,0.3187686502933502,0.12421087175607681],[-0.691851794719696,44.561710357666016,-0.02345515973865986,-39.07176971435547,0.125156968832016,-1.2507734298706055,-0.109543077647686,0.10646985471248627,1.3559529781341553,0.09592136740684509,0.24269752204418182,0.04366417974233627,0.038735657930374146,-11.414382934570312,-0.16894610226154327,0.1810813695192337,-0.07124226540327072,0.09893954545259476,-0.233754962682724,-0.008648503571748734,-0.05449620261788368,-0.3441299498081207,-4.9771528244018555,3.5521035194396973,0.055567316710948944,0.1244710385799408,0.2101278305053711,-0.14426767826080322,-8.951812744140625,-3.88362193107605,0.13505321741104126,0.1416703760623932,0.12230980396270752,0.17574141919612885,0.15533332526683807,3.0439131259918213,-14.957311630249023,1.54422128200531,0.1265242099761963,-5.442008018493652,0.17306049168109894,5.702229022979736,-0.042768653482198715],[1.3272737264633179,12.784531593322754,1.1341569423675537,-97.93789672851562,0.2624143660068512,2.869734764099121,-0.00937519408762455,0.15874160826206207,-8.385726928710938,-0.13761618733406067,0.12016364932060242,0.06187738478183746,-0.21127091348171234,-1.2388951778411865,1.0279871225357056,-0.4359178841114044,-0.3037203550338745,-0.10190457850694656,-0.18893887102603912,-0.02742651291191578,-0.009116463363170624,0.2091110199689865,10.587982177734375,1.968749761581421,-0.5948124527931213,0.1540583223104477,-1.1990724802017212,0.024213183671236038,-4.032019138336182,-1.4787615537643433,-0.24421265721321106,0.17738963663578033,-0.19829139113426208,-0.0769234225153923,0.12894375622272491,-10.136018753051758,-12.036128044128418,-27.84739875793457,-0.25404003262519836,-20.372119903564453,-0.12049219757318497,-0.6854420900344849,0.011843970976769924]],"biases":[26.632715225219727,5.3907790184021,-0.38601261377334595]},{"weights":[[-3.4201865196228027,-4.346808433532715,27.52468490600586]],"biases":[1.4680947065353394]}],"inputLookup":null,"inputLookupLength":0,"outputLookup":null,"outputLookupLength":0,"options":{"inputSize":0,"outputSize":0,"binaryThresh":0.5,"hiddenLayers":[3],"activation":"sigmoid"},"trainOpts":{"activation":"sigmoid","iterations":100,"errorThresh":0.005,"log":true,"logPeriod":10,"leakyReluAlpha":0.01,"learningRate":0.3,"momentum":0.1,"callbackPeriod":10,"timeout":"Infinity","beta1":0.9,"beta2":0.999,"epsilon":1e-8}}