{"type":"NeuralNetwork","sizes":[43,3,1],"layers":[{"weights":[],"biases":[]},{"weights":[[3.4328994750976562,-12.551912307739258,2.5953094959259033,60.86867141723633,0.1491076797246933,-0.1373259723186493,2.9789090156555176,-0.0764644593000412,-6.584712982177734,0.11592938750982285,-0.5557647943496704,-0.3504696488380432,-0.24333779513835907,38.68302536010742,0.21156099438667297,-0.13924776017665863,-2.1342813968658447,-2.142634630203247,2.109290838241577,1.2255644798278809,1.0476945638656616,2.0661072731018066,-4.3502888679504395,7.227255821228027,-0.09232554584741592,-0.01144482009112835,-1.8663614988327026,0.0047324118204414845,3.1724398136138916,25.93027687072754,-0.8247760534286499,-0.01007079891860485,-0.09704796969890594,-0.1173798143863678,-0.1864336133003235,108.202392578125,30.649526596069336,-25.886009216308594,0.07365637272596359,31.357572555541992,0.4080633223056793,-1.8022531270980835,0.24788734316825867],[6.998631477355957,-18.065814971923828,4.33741569519043,11.635160446166992,0.2123207002878189,5.348034381866455,1.2973744869232178,0.05204415321350098,-19.559341430664062,-0.12976934015750885,-0.4065074622631073,-0.5739948749542236,0.16478803753852844,-3.2254912853240967,0.09788881987333298,-0.4724540412425995,-0.41063371300697327,-0.5897513031959534,3.3424651622772217,1.3060555458068848,0.4471701383590698,3.3564510345458984,36.95661163330078,13.829630851745605,-1.842127799987793,0.1592046320438385,-2.844425916671753,-0.121125228703022,-4.9980902671813965,-2.7029783725738525,-0.3681119680404663,0.14422014355659485,0.12223827838897705,-0.20290055871009827,-0.1717403382062912,-2.2362542152404785,27.120956420898438,-93.03803253173828,-0.1799854338169098,-93.63224792480469,-0.23071999847888947,-9.401731491088867,0.17769965529441833],[-1.7538444995880127,-105.97270202636719,-1.4182615280151367,49.80503463745117,-0.19237494468688965,0.02702631801366806,-0.06015235185623169,0.04092790558934212,0.8811922073364258,0.024232689291238785,0.04770318418741226,0.31359830498695374,0.04021157696843147,23.778348922729492,-0.39506077766418457,0.3784886598587036,0.9478342533111572,1.217222809791565,-0.6009659767150879,-0.6528640985488892,-0.577808678150177,-0.4959184527397156,-7.000732421875,5.250034809112549,0.344162255525589,-0.09840533882379532,0.5438510775566101,0.14654706418514252,-43.35822296142578,72.61092376708984,0.21086424589157104,0.13973213732242584,0.08983192592859268,-0.17206180095672607,-0.0889696404337883,60.23813247680664,39.04496383666992,13.664789199829102,0.050482917577028275,-23.940284729003906,-0.143528550863266,-4.033798694610596,-0.17300398647785187]],"biases":[-27.627933502197266,5.31288480758667,-22.49567413330078]},{"weights":[[3.574723958969116,3.7929210662841797,-4.333794593811035]],"biases":[-1.2004539966583252]}],"inputLookup":null,"inputLookupLength":0,"outputLookup":null,"outputLookupLength":0,"options":{"inputSize":0,"outputSize":0,"binaryThresh":0.5,"hiddenLayers":[3],"activation":"sigmoid"},"trainOpts":{"activation":"sigmoid","iterations":100,"errorThresh":0.005,"log":true,"logPeriod":10,"leakyReluAlpha":0.01,"learningRate":0.3,"momentum":0.1,"callbackPeriod":10,"timeout":"Infinity","beta1":0.9,"beta2":0.999,"epsilon":1e-8}}