{"type":"NeuralNetwork","sizes":[21,3,1],"layers":[{"weights":[],"biases":[]},{"weights":[[-51.3688850402832,-40.725711822509766,27.79039764404297,-9.766558647155762,13.497971534729004,-9.921392440795898,-25.221412658691406,21.063655853271484,4.540582656860352,6.673064231872559,34.374755859375,28.9664306640625,17.455791473388672,-14.649770736694336,0.6590616106987,-1.0762410163879395,-16.99479866027832,-8.106561660766602,-2.050882339477539,12.516688346862793,2.6312286853790283],[3.03771710395813,2.4486207962036133,-1.7672282457351685,0.23739352822303772,-0.9805912375450134,0.5370262265205383,1.7512983083724976,-1.3594777584075928,-0.27022597193717957,-0.49338212609291077,-2.1795926094055176,-2.06173038482666,-1.059165596961975,0.3756559491157532,-0.2952614426612854,0.06241193413734436,0.9211173057556152,0.39482584595680237,-0.0443340428173542,-1.4753479957580566,-1.6541333198547363],[17.71992301940918,14.201556205749512,-11.031496047973633,1.8343511819839478,-5.237831115722656,3.1796576976776123,8.056639671325684,-8.23719596862793,-2.655329942703247,-2.489962100982666,-13.099349975585938,-11.212064743041992,-6.563662528991699,2.921510696411133,-0.3550240397453308,-0.09684927761554718,5.1438140869140625,2.299302577972412,-1.40946626663208,-8.022507667541504,-8.786258697509766]],"biases":[0.14594615995883942,-0.3684028685092926,-2.4153695106506348]},{"weights":[[-11.674169540405273,0.8375020027160645,4.990019798278809]],"biases":[-0.5944252014160156]}],"inputLookup":null,"inputLookupLength":0,"outputLookup":null,"outputLookupLength":0,"options":{"inputSize":0,"outputSize":0,"binaryThresh":0.5,"hiddenLayers":[3],"activation":"leaky-relu"},"trainOpts":{"activation":"leaky-relu","iterations":100,"errorThresh":0.005,"log":false,"logPeriod":10,"leakyReluAlpha":0.01,"learningRate":0.3,"momentum":0.1,"callbackPeriod":10,"timeout":"Infinity","beta1":0.9,"beta2":0.999,"epsilon":1e-8}}