{"type":"NeuralNetwork","sizes":[43,3,1],"layers":[{"weights":[],"biases":[]},{"weights":[[0.7746431827545166,-14.239089012145996,0.36042243242263794,-13.546201705932617,0.027996428310871124,0.5957944393157959,0.10123048722743988,-0.027000032365322113,0.029452603310346603,0.14664480090141296,0.01057301927357912,-0.0521293468773365,0.11251470446586609,-0.20112314820289612,0.10356778651475906,-0.21109545230865479,0.10667559504508972,0.14392679929733276,0.2897966802120209,0.1691254824399948,-0.1505468338727951,0.08059072494506836,16.368026733398438,-2.0594756603240967,-0.033916864544153214,-0.14125609397888184,0.1027093306183815,-0.12044920772314072,-1.8732017278671265,-18.987987518310547,0.1444622278213501,0.16784881055355072,-0.11844081431627274,0.09816214442253113,0.1234418973326683,-12.391549110412598,-2.054962396621704,-2.8795766830444336,-0.17631644010543823,-15.321754455566406,-0.23654374480247498,-0.3109323978424072,-0.09365659207105637],[1.5466386079788208,-4.859862804412842,1.1572291851043701,24.319650650024414,0.2372497171163559,1.216153621673584,0.3242291808128357,0.09496673941612244,-0.5113025307655334,-0.19472317397594452,-0.16248421370983124,-0.18240568041801453,0.04256852716207504,-8.562165260314941,-0.1909857541322708,0.15484663844108582,-0.32006797194480896,-0.35354575514793396,0.3300725221633911,0.14725446701049805,0.37824833393096924,0.3711032271385193,8.392210006713867,-1.5005875825881958,0.0682731419801712,0.04870248958468437,-0.30739596486091614,-0.004962501581758261,29.723249435424805,0.6933890581130981,-0.3298792839050293,-0.043436113744974136,0.07200466096401215,-0.023182863369584084,-0.04880961775779724,-0.921016275882721,5.888723373413086,-5.166816234588623,-0.04393044486641884,26.736408233642578,-0.08330640941858292,-0.48944178223609924,-0.05058892443776131],[0.17513199150562286,-5.494540214538574,-0.06380627304315567,1.224417805671692,0.03490535542368889,0.11443373560905457,0.1618928760290146,-0.18578574061393738,-0.3263646364212036,-0.12442974001169205,-0.08034463226795197,-0.11212334036827087,-0.16230733692646027,18.04489517211914,0.09066841751337051,-0.11263208836317062,0.13465642929077148,0.111997090280056,0.2224762886762619,-0.08346448838710785,0.1034628301858902,-0.02561425045132637,6.428890228271484,3.9798238277435303,0.12038009613752365,0.01081786211580038,-0.09686101227998734,-0.00782824493944645,-2.435556650161743,1.8138161897659302,-0.046756356954574585,-0.16517332196235657,0.1802297681570053,-0.08389171212911606,0.04683127999305725,1.018283724784851,0.8985387086868286,-0.2550111711025238,-0.0024876559618860483,-3.1893184185028076,-0.09611590951681137,-0.8453946709632874,-0.1539410948753357]],"biases":[1.3415976762771606,-30.576631546020508,-5.519449710845947]},{"weights":[[5.271209716796875,3.2130508422851562,2.830118179321289]],"biases":[-1.8154081106185913]}],"inputLookup":null,"inputLookupLength":0,"outputLookup":null,"outputLookupLength":0,"options":{"inputSize":0,"outputSize":0,"binaryThresh":0.5,"hiddenLayers":[3],"activation":"sigmoid"},"trainOpts":{"activation":"sigmoid","iterations":100,"errorThresh":0.005,"log":false,"logPeriod":10,"leakyReluAlpha":0.01,"learningRate":0.3,"momentum":0.1,"callbackPeriod":10,"timeout":"Infinity","beta1":0.9,"beta2":0.999,"epsilon":1e-8}}