{"type":"NeuralNetwork","sizes":[78,3,1],"layers":[{"weights":[],"biases":[]},{"weights":[[-0.1440231204032898,-0.5844135880470276,-0.15037834644317627,0.005823732353746891,0.10356757789850235,0.13295622169971466,0.16551315784454346,0.08849847316741943,0.04432879015803337,-0.17358863353729248,-0.1425660103559494,-0.000729780294932425,-0.09400877356529236,0.021071286872029305,-0.5702733993530273,-0.17787891626358032,-0.07607468217611313,0.3504595160484314,-0.02965192124247551,-0.21627925336360931,-0.3039606213569641,-0.004421611782163382,0.23186689615249634,0.050320081412792206,-0.22270113229751587,-0.5996909737586975,-0.06368646025657654,0.07417941838502884,-0.0884336307644844,-0.11135754734277725,-0.17797036468982697,-0.07422266155481339,-0.09128805994987488,0.1934768259525299,-0.0816214382648468,0.04932485893368721,-0.1872120201587677,-0.20651523768901825,-0.09168069064617157,0.1288411021232605,-0.011438161134719849,0.17265179753303528,1.2584601640701294,-0.1460382044315338,-0.14123693108558655,-0.15921127796173096,-0.07999110966920853,-0.1913667917251587,-0.04148770123720169,0.07724210619926453,-0.11198494583368301,0.0943291038274765,0.19519303739070892,0.1791502982378006,0.16918690502643585,-0.1034599021077156,-0.023794418200850487,-0.09150803089141846,-0.15600073337554932,-0.08683378249406815,-0.1909237504005432,0.04033048078417778,0.1869886964559555,-0.11101172119379044,-0.05537256971001625,-0.1633816659450531,-0.12718939781188965,-0.11454077064990997,0.14231251180171967,0.03914204612374306,0.12170733511447906,0.156182661652565,-0.2237965166568756,0.016463806852698326,-0.06902041286230087,0.10070426017045975,-0.06068645790219307,-0.05471773073077202],[0.29451313614845276,0.07572530955076218,-0.11866461485624313,-0.15349553525447845,0.08988702297210693,0.18757228553295135,-0.13006047904491425,0.07207690924406052,0.17434169352054596,0.12193183600902557,-0.07471295446157455,-0.03371735289692879,-0.18242999911308289,-0.010793106630444527,0.6494168043136597,0.22759507596492767,0.187785342335701,-0.3879894018173218,-0.2930446267127991,0.2358292192220688,-0.2861037850379944,-0.12207483500242233,-0.26440685987472534,-0.5488309264183044,-0.03245308995246887,0.07352311909198761,0.24269433319568634,0.21276214718818665,-0.039230816066265106,-0.1264500766992569,0.10493984818458557,-0.07874465733766556,-0.17064648866653442,0.06383563578128815,-0.19528208673000336,-0.08032980561256409,-0.02770748920738697,0.07163339853286743,-0.18147645890712738,0.10189459472894669,-0.19080838561058044,0.005449953489005566,-0.7067097425460815,0.17560338973999023,-0.013054721988737583,-0.13281361758708954,0.06903725117444992,0.09198588877916336,-0.034720562398433685,0.18791194260120392,-0.08173560351133347,-0.11637639254331589,0.19122079014778137,0.0284721776843071,0.03941604495048523,0.06840230524539948,0.07218432426452637,-0.10711586475372314,0.09047868102788925,0.13596341013908386,-0.06028561666607857,0.01571088843047619,0.019853129982948303,-0.1302923858165741,-0.1885293871164322,0.01402884442359209,0.1912139505147934,0.07612015306949615,0.10019222646951675,-0.1283845454454422,-0.05201388895511627,-0.0636742040514946,0.20820891857147217,-0.1471811980009079,-0.6044119596481323,0.048413537442684174,-0.6825926303863525,-0.5713737607002258],[-1.0116939544677734,-1.1332461833953857,-0.0432744175195694,0.148306205868721,-0.036111339926719666,0.001587592763826251,-0.18616624176502228,0.12886734306812286,0.08748085051774979,-0.03075304813683033,-0.11158521473407745,-0.17186373472213745,-0.1935725212097168,-0.04943639412522316,-2.3766374588012695,-0.7078719139099121,0.08724995702505112,1.7320634126663208,1.2360659837722778,-0.9554834365844727,-0.12272915244102478,0.5518066883087158,1.4458510875701904,1.2556475400924683,-0.3037783205509186,-2.04288387298584,-0.3029276132583618,-0.13200825452804565,-0.37826186418533325,-0.25531476736068726,0.1752900928258896,0.0438140444457531,-0.07361447811126709,0.048886414617300034,-0.10986846685409546,-0.028739260509610176,-0.709667444229126,-0.06851085275411606,-0.16496418416500092,0.000265405309619382,-0.15972597897052765,-0.11454452574253082,3.2892022132873535,-0.07969468086957932,0.1751328855752945,-0.12103025615215302,0.12415865808725357,-0.1840539425611496,-0.10959900170564651,0.03604885935783386,-0.011859425343573093,-0.17787142097949982,0.11729519069194794,-0.12630417943000793,0.11880259960889816,0.18011145293712616,0.007673407439142466,-0.08547705411911011,-0.0716921016573906,-0.17418642342090607,0.18019311130046844,-0.18789240717887878,-0.11700739711523056,0.06363247334957123,-0.16530048847198486,-0.04585158824920654,-0.13176000118255615,-0.0031512773130089045,0.027663232758641243,0.197441965341568,-0.1434004008769989,0.01752837561070919,-0.2541375756263733,-0.32934194803237915,0.8511152863502502,0.06989339739084244,0.7338309288024902,1.006258249282837]],"biases":[-0.2782733142375946,-0.006424544844776392,-0.8222611546516418]},{"weights":[[1.264430046081543,-1.6945059299468994,7.539668560028076]],"biases":[-2.253833532333374]}],"inputLookup":null,"inputLookupLength":0,"outputLookup":null,"outputLookupLength":0,"options":{"inputSize":0,"outputSize":0,"binaryThresh":0.5,"hiddenLayers":[3],"activation":"sigmoid"},"trainOpts":{"activation":"sigmoid","iterations":100,"errorThresh":0.005,"log":false,"logPeriod":10,"leakyReluAlpha":0.01,"learningRate":0.3,"momentum":0.1,"callbackPeriod":10,"timeout":"Infinity","beta1":0.9,"beta2":0.999,"epsilon":1e-8}}